digraph Tree {
node [shape=box, style="filled, rounded", color="black", fontname=helvetica] ;
edge [fontname=helvetica] ;
0 [label=<Worst radius &le; 16.795<br/>entropy = 0.95<br/>samples = 455<br/>value = [287, 168]<br/>class = malignant>, fillcolor="#f4cbad"] ;
1 [label=<Worst concave points &le; 0.136<br/>entropy = 0.388<br/>samples = 303<br/>value = [280, 23]<br/>class = malignant>, fillcolor="#e78b49"] ;
0 -> 1 [labeldistance=2.5, labelangle=45, headlabel="True"] ;
3 [label=<Area error &le; 38.605<br/>entropy = 0.063<br/>samples = 268<br/>value = [266, 2]<br/>class = malignant>, fillcolor="#e5823a"] ;
1 -> 3 ;
11 [label=<entropy = 0.0<br/>samples = 255<br/>value = [255, 0]<br/>class = malignant>, fillcolor="#e58139"] ;
3 -> 11 ;
12 [label=<Fractal dimension error &le; 0.004<br/>entropy = 0.619<br/>samples = 13<br/>value = [11, 2]<br/>class = malignant>, fillcolor="#ea985d"] ;
3 -> 12 ;
23 [label=<Worst fractal dimenion &le; 0.066<br/>entropy = 0.971<br/>samples = 5<br/>value = [3, 2]<br/>class = malignant>, fillcolor="#f6d5bd"] ;
12 -> 23 ;
25 [label=<entropy = 0.0<br/>samples = 3<br/>value = [3, 0]<br/>class = malignant>, fillcolor="#e58139"] ;
23 -> 25 ;
26 [label=<entropy = 0.0<br/>samples = 2<br/>value = [0, 2]<br/>class = benign>, fillcolor="#399de5"] ;
23 -> 26 ;
24 [label=<entropy = 0.0<br/>samples = 8<br/>value = [8, 0]<br/>class = malignant>, fillcolor="#e58139"] ;
12 -> 24 ;
4 [label=<Worst texture &le; 26.9<br/>entropy = 0.971<br/>samples = 35<br/>value = [14, 21]<br/>class = benign>, fillcolor="#bddef6"] ;
1 -> 4 ;
7 [label=<Worst area &le; 811.1<br/>entropy = 0.918<br/>samples = 21<br/>value = [14, 7]<br/>class = malignant>, fillcolor="#f2c09c"] ;
4 -> 7 ;
13 [label=<Worst symmetry &le; 0.376<br/>entropy = 0.672<br/>samples = 17<br/>value = [14, 3]<br/>class = malignant>, fillcolor="#eb9c63"] ;
7 -> 13 ;
15 [label=<entropy = 0.0<br/>samples = 13<br/>value = [13, 0]<br/>class = malignant>, fillcolor="#e58139"] ;
13 -> 15 ;
16 [label=<Compactness error &le; 0.08<br/>entropy = 0.811<br/>samples = 4<br/>value = [1, 3]<br/>class = benign>, fillcolor="#7bbeee"] ;
13 -> 16 ;
21 [label=<entropy = 0.0<br/>samples = 3<br/>value = [0, 3]<br/>class = benign>, fillcolor="#399de5"] ;
16 -> 21 ;
22 [label=<entropy = 0.0<br/>samples = 1<br/>value = [1, 0]<br/>class = malignant>, fillcolor="#e58139"] ;
16 -> 22 ;
14 [label=<entropy = 0.0<br/>samples = 4<br/>value = [0, 4]<br/>class = benign>, fillcolor="#399de5"] ;
7 -> 14 ;
8 [label=<entropy = 0.0<br/>samples = 14<br/>value = [0, 14]<br/>class = benign>, fillcolor="#399de5"] ;
4 -> 8 ;
2 [label=<texture &le; 14.99<br/>entropy = 0.269<br/>samples = 152<br/>value = [7, 145]<br/>class = benign>, fillcolor="#43a2e6"] ;
0 -> 2 [labeldistance=2.5, labelangle=-45, headlabel="False"] ;
5 [label=<Smoothness error &le; 0.009<br/>entropy = 0.65<br/>samples = 6<br/>value = [5, 1]<br/>class = malignant>, fillcolor="#ea9a61"] ;
2 -> 5 ;
19 [label=<entropy = 0.0<br/>samples = 5<br/>value = [5, 0]<br/>class = malignant>, fillcolor="#e58139"] ;
5 -> 19 ;
20 [label=<entropy = 0.0<br/>samples = 1<br/>value = [0, 1]<br/>class = benign>, fillcolor="#399de5"] ;
5 -> 20 ;
6 [label=<Worst concavity &le; 0.191<br/>entropy = 0.104<br/>samples = 146<br/>value = [2, 144]<br/>class = benign>, fillcolor="#3c9ee5"] ;
2 -> 6 ;
9 [label=<texture &le; 21.26<br/>entropy = 1.0<br/>samples = 4<br/>value = [2, 2]<br/>class = malignant>, fillcolor="#ffffff"] ;
6 -> 9 ;
17 [label=<entropy = 0.0<br/>samples = 2<br/>value = [2, 0]<br/>class = malignant>, fillcolor="#e58139"] ;
9 -> 17 ;
18 [label=<entropy = 0.0<br/>samples = 2<br/>value = [0, 2]<br/>class = benign>, fillcolor="#399de5"] ;
9 -> 18 ;
10 [label=<entropy = 0.0<br/>samples = 142<br/>value = [0, 142]<br/>class = benign>, fillcolor="#399de5"] ;
6 -> 10 ;
}
